SVM-light Version V6.20
0 # kernel type
3 # kernel parameter -d 
1 # kernel parameter -g 
1 # kernel parameter -s 
1 # kernel parameter -r 
empty# kernel parameter -u 
129 # highest feature index 
325 # number of training documents 
2 # number of support vectors plus 1 
0 # threshold b, each following line is a SV (starting with alpha*y)
1 65:-0.057076033 66:0.20185365 67:0.30066901 68:-0.43312216 69:-0.40046233 70:0.33777815 71:-0.080815554 72:-0.24082473 73:0.52391946 74:-0.097863063 75:0.10734667 76:-0.1676967 77:-0.28429237 78:0.10823137 79:-0.052196037 80:-0.0042044139 81:-0.10306188 82:-0.11357027 83:0.34275553 84:0.19483562 85:0.027822677 86:-0.036283627 87:-0.18831499 88:0.13474233 89:0.15233776 90:0.022964656 91:0.21169049 92:-0.31208301 93:-0.28395039 94:-0.13626914 95:0.13691065 96:0.12725799 97:0.04688878 98:0.017473649 99:0.29285735 100:0.009385962 101:-0.05948225 102:0.0051450897 103:-0.091972791 104:-0.022945181 105:-0.086927034 106:0.13916945 107:-0.12098384 108:-0.060010839 109:-0.025529357 110:0.26054659 111:-0.089253806 112:-0.15682498 113:0.20103356 114:0.17322445 115:0.14915343 116:-0.023509914 117:-0.0087893913 118:-0.091894865 119:-0.026702043 120:0.53613138 121:0.1310896 122:0.016564304 123:-0.063757561 124:0.16490333 125:-0.20650738 126:-0.42430496 127:-0.29893944 128:0.35179746 #
